,ClinicalSignificance_Affects,ClinicalSignificance_Benign,ClinicalSignificance_Benign/Likely_benign,ClinicalSignificance_Benign/Likely_benign|association,ClinicalSignificance_Benign/Likely_benign|drug_response,ClinicalSignificance_Benign/Likely_benign|drug_response|other,ClinicalSignificance_Benign/Likely_benign|other,ClinicalSignificance_Benign/Likely_benign|other|risk_factor,ClinicalSignificance_Benign/Likely_benign|risk_factor,ClinicalSignificance_Benign|Affects,ClinicalSignificance_Benign|Affects|association|other,ClinicalSignificance_Benign|association,ClinicalSignificance_Benign|confers_sensitivity,ClinicalSignificance_Benign|drug_response,ClinicalSignificance_Benign|other,ClinicalSignificance_Benign|protective,ClinicalSignificance_Benign|risk_factor,ClinicalSignificance_Conflicting_classifications_of_pathogenicity,ClinicalSignificance_Conflicting_classifications_of_pathogenicity|Affects,ClinicalSignificance_Conflicting_classifications_of_pathogenicity|association,ClinicalSignificance_Conflicting_classifications_of_pathogenicity|association|risk_factor,ClinicalSignificance_Conflicting_classifications_of_pathogenicity|drug_response,ClinicalSignificance_Conflicting_classifications_of_pathogenicity|drug_response|other,ClinicalSignificance_Conflicting_classifications_of_pathogenicity|other,ClinicalSignificance_Conflicting_classifications_of_pathogenicity|other|risk_factor,ClinicalSignificance_Conflicting_classifications_of_pathogenicity|protective,ClinicalSignificance_Conflicting_classifications_of_pathogenicity|risk_factor,ClinicalSignificance_Likely_benign,ClinicalSignificance_Likely_benign|Affects|association,ClinicalSignificance_Likely_benign|association,ClinicalSignificance_Likely_benign|drug_response,ClinicalSignificance_Likely_benign|drug_response|other,ClinicalSignificance_Likely_benign|other,ClinicalSignificance_Likely_benign|risk_factor,ClinicalSignificance_Likely_pathogenic,"ClinicalSignificance_Likely_pathogenic,_low_penetrance",ClinicalSignificance_Likely_pathogenic/Likely_risk_allele,ClinicalSignificance_Likely_pathogenic|Affects,ClinicalSignificance_Likely_pathogenic|association,ClinicalSignificance_Likely_pathogenic|drug_response,ClinicalSignificance_Likely_pathogenic|other,ClinicalSignificance_Likely_pathogenic|protective,ClinicalSignificance_Likely_pathogenic|risk_factor,ClinicalSignificance_Likely_risk_allele,ClinicalSignificance_Missing,ClinicalSignificance_Pathogenic,ClinicalSignificance_Pathogenic/Likely_pathogenic,ClinicalSignificance_Pathogenic/Likely_pathogenic/Likely_risk_allele,"ClinicalSignificance_Pathogenic/Likely_pathogenic/Pathogenic,_low_penetrance","ClinicalSignificance_Pathogenic/Likely_pathogenic/Pathogenic,_low_penetrance|risk_factor",ClinicalSignificance_Pathogenic/Likely_pathogenic|association,ClinicalSignificance_Pathogenic/Likely_pathogenic|other,ClinicalSignificance_Pathogenic/Likely_pathogenic|risk_factor,ClinicalSignificance_Pathogenic/Likely_risk_allele,"ClinicalSignificance_Pathogenic/Pathogenic,_low_penetrance|other","ClinicalSignificance_Pathogenic/Pathogenic,_low_penetrance|other|risk_factor",ClinicalSignificance_Pathogenic|Affects,ClinicalSignificance_Pathogenic|association,ClinicalSignificance_Pathogenic|association|protective,ClinicalSignificance_Pathogenic|confers_sensitivity,ClinicalSignificance_Pathogenic|drug_response,ClinicalSignificance_Pathogenic|other,ClinicalSignificance_Pathogenic|protective,ClinicalSignificance_Pathogenic|risk_factor,ClinicalSignificance_Uncertain_risk_allele,ClinicalSignificance_Uncertain_risk_allele|risk_factor,ClinicalSignificance_Uncertain_significance,ClinicalSignificance_Uncertain_significance/Uncertain_risk_allele,ClinicalSignificance_Uncertain_significance|Affects,ClinicalSignificance_Uncertain_significance|association,ClinicalSignificance_Uncertain_significance|drug_response,ClinicalSignificance_Uncertain_significance|other,ClinicalSignificance_Uncertain_significance|risk_factor,ClinicalSignificance_association,ClinicalSignificance_association_not_found,ClinicalSignificance_association|drug_response|risk_factor,ClinicalSignificance_association|risk_factor,ClinicalSignificance_confers_sensitivity,ClinicalSignificance_confers_sensitivity|other,ClinicalSignificance_drug_response,ClinicalSignificance_drug_response|other,ClinicalSignificance_drug_response|risk_factor,ClinicalSignificance_no_classification_for_the_single_variant,ClinicalSignificance_no_classifications_from_unflagged_records,ClinicalSignificance_not_provided,ClinicalSignificance_other,ClinicalSignificance_other|risk_factor,ClinicalSignificance_protective,ClinicalSignificance_protective|risk_factor,ClinicalSignificance_risk_factor,ReviewStatus_Missing,"ReviewStatus_criteria_provided,_conflicting_classifications","ReviewStatus_criteria_provided,_multiple_submitters,_no_conflicts","ReviewStatus_criteria_provided,_single_submitter",ReviewStatus_no_assertion_criteria_provided,ReviewStatus_no_classification_for_the_single_variant,ReviewStatus_no_classification_provided,ReviewStatus_no_classifications_from_unflagged_records,ReviewStatus_practice_guideline,ReviewStatus_reviewed_by_expert_panel,VariantType_3_prime_UTR_variant,VariantType_5_prime_UTR_variant,VariantType_Missing,VariantType_frameshift_variant,VariantType_genic_downstream_transcript_variant,VariantType_genic_upstream_transcript_variant,VariantType_inframe_deletion,VariantType_inframe_indel,VariantType_inframe_insertion,VariantType_initiator_codon_variant,VariantType_intron_variant,VariantType_missense_variant,VariantType_no_sequence_alteration,VariantType_non-coding_transcript_variant,VariantType_nonsense,VariantType_splice_acceptor_variant,VariantType_splice_donor_variant,VariantType_stop_lost,VariantType_synonymous_variant,Chromosome_1,Chromosome_10,Chromosome_11,Chromosome_12,Chromosome_13,Chromosome_14,Chromosome_15,Chromosome_16,Chromosome_17,Chromosome_18,Chromosome_19,Chromosome_2,Chromosome_20,Chromosome_21,Chromosome_22,Chromosome_3,Chromosome_4,Chromosome_5,Chromosome_6,Chromosome_7,Chromosome_8,Chromosome_9,Chromosome_MT,Chromosome_NT_113889.1,Chromosome_NT_187633.1,Chromosome_NT_187661.1,Chromosome_NT_187693.1,Chromosome_NW_009646201.1,Chromosome_X,Chromosome_Y
PC_1,-9.75010300366338e-06,-0.04754775495553444,-0.012941039370061747,-1.8089412345823064e-07,1.752630119922216e-07,-3.6305209769743607e-07,-1.4469368898265694e-07,8.117854010671836e-08,-2.710468646747297e-07,-3.296574871542363e-07,-3.37014303634559e-07,-6.148494282802424e-07,-1.7282323867692695e-07,-1.5169449378619898e-07,2.143982037168884e-07,-3.183387475610456e-07,-1.1043662481930593e-07,-0.012746655743187967,-3.325762364039824e-07,-8.425282696101555e-07,1.961086987221688e-07,-4.251075821594976e-07,-2.662622732515802e-07,-1.728888246039699e-06,2.0015100556471715e-07,-1.5923652960555764e-07,4.438052166303133e-07,-0.4726832174130171,9.992956621194388e-08,9.126589676911892e-08,-3.7864954044949655e-07,-2.6999706476707526e-07,-7.079636983669157e-07,-2.398713857374329e-07,-0.00890284747356293,-5.214717772471621e-07,2.690724698785058e-07,-7.97385261366542e-08,-7.007008052697776e-07,-7.403625088376246e-07,-2.7709244913989564e-07,-1.6384034655852045e-07,-8.36570329848633e-07,-9.857122011774731e-06,-6.052763995593595e-05,-0.023295265734645798,-0.004374347887717171,-8.019119961973297e-08,-4.323133036909512e-07,-1.7406477753925757e-07,8.7331384063444e-08,-6.430090670420166e-08,2.7006220757173854e-07,-9.95379362699014e-07,8.880954067000882e-08,-2.694711993679738e-07,-4.604337384866154e-07,-3.2458791977621267e-07,-1.5798660522692904e-07,-1.6670439010972197e-07,3.9121887376023824e-08,4.083902930288231e-06,-4.3040123631493783e-07,-1.8752284400714838e-06,-2.353897800191229e-06,9.834234403402579e-08,0.5843554621524845,6.004506777921215e-06,8.78105091949038e-08,-1.4124159311875472e-06,-4.3651003745597717e-07,2.86249246994822e-07,-6.158711063082212e-07,-4.467784637378374e-05,-1.099651494785312e-06,-2.597495982837632e-07,-2.571581571157496e-07,-2.355911999888529e-06,-1.4955397132484562e-07,-0.00035884306312089715,8.76314622659259e-08,-4.229590297604907e-07,-4.861797845164971e-05,-1.625071470364568e-05,-0.001052782784437779,-0.00020625252433113242,-1.635512728323802e-07,-4.648717555613791e-06,-6.385321338669597e-07,-3.776783743020631e-05,-6.0527639955935736e-05,-0.012729408254680705,-0.034445773137645436,0.06361199966468156,-0.012968613478087726,-4.861797845164955e-05,-0.0010525273565787537,-1.6250714703645728e-05,-7.535805431700259e-07,-0.00228952752403452,0.002793963693742885,0.0040568415926250205,-0.0011114118970566313,-0.01198436225446409,-4.900030018351174e-05,-0.00017262755645194888,0.0008482122614432683,0.00011888465778215956,0.0003473312633970772,-2.1373383760319163e-05,-0.1930668111946236,0.5253281262195701,-0.00012965164820661512,0.020735450308681767,-0.007829729156620262,-0.0022647274021633996,-0.0029491492953841658,4.76266497597009e-05,-0.33469759255808756,0.006747872195247388,-0.0005397939173402953,0.0011537852489609387,0.005015511096967127,-0.0012504735186123902,0.0018224558510519578,0.00020032581613805677,-0.0014192353478001424,-0.0011415023111593162,-0.0002620914427597196,0.006978144427272425,-0.01347901241320821,0.00041880549124743744,-0.0015857802526714235,3.802646004666833e-05,0.0009894079754709188,0.0026428594690414346,-0.0013565760344570969,0.0018029038380308776,-0.00018077403798150154,0.0009257861231807146,-0.0037270078147295916,-0.00018742795517344543,1.3839007173123984e-07,2.694899747355657e-07,-3.820675898065387e-07,5.718022553410052e-07,-1.5487276646053654e-07,-0.0036064745141133614,-1.7717459501784787e-07
PC_2,-7.626814913030471e-05,-0.10227707292722626,-0.05805442100966651,-1.0775651723693436e-06,-2.1982903920525487e-06,-3.221905321454388e-06,-1.1924873973973016e-05,-1.1068958821035951e-06,-1.0388907171390155e-06,-1.7629020392259621e-06,-5.450113867006397e-07,-9.001253920628107e-06,-1.071341563857143e-06,-4.419325273768402e-06,-1.2731913627188681e-05,-2.3198952805964512e-06,-1.2323985929552942e-05,-0.10787570235451166,-1.1971080785719669e-06,-4.545999080404652e-06,-1.344201007546256e-06,-1.8023898024151143e-06,-6.140866584899671e-07,-1.4049246984824102e-05,-1.3346034680802949e-06,-1.1574082819731413e-06,-1.053268371822354e-05,0.23449872891948478,-6.093179822126808e-07,-1.0890342329563378e-06,-2.9485394127356655e-06,-4.3102814121232865e-06,-1.1850974299233692e-05,-1.6383529289111953e-06,-0.0051574076031963515,-2.267397168524365e-06,-1.4216493254653575e-05,-1.7003362498492254e-06,-4.028338775056396e-06,-1.2620916985070808e-05,-1.0438866878975012e-06,-5.85085625130939e-07,-5.821132005670953e-06,-3.900849425013253e-05,-0.0003550247609198679,-0.03858678052701665,-0.038339790869765515,-5.456702873620363e-06,-5.3533232079381035e-06,-1.0747287423216486e-06,-1.1126269383740985e-06,-6.007373676019781e-06,-3.2866596641681047e-06,-9.350141414897926e-06,-1.0985481986323898e-06,-1.0287883388035368e-06,-4.180187015686336e-06,-2.3576103106209184e-06,-5.768658542045919e-07,-6.029576058823519e-07,-3.1381459535830277e-05,-4.7858451056636704e-05,-1.1441336083898168e-06,-1.2231621708102031e-05,-4.714359821542974e-06,-6.127862930115108e-07,0.12562946547707657,-0.00016052129625333567,-1.1011812123419647e-06,-4.46607212513687e-06,-6.261486782555786e-06,-5.61124975768696e-06,-5.701966960983222e-06,-0.00018275516981778965,-1.3450005901900622e-06,-5.518141320724107e-07,-5.507959600703565e-07,-3.983709085251131e-06,-5.760199790127809e-07,-0.0010433882466013072,-1.099144179072113e-06,-1.1269982101721995e-06,-0.0003658897089766269,-8.08877892196944e-05,-0.006064355375789493,-0.0008911855779128525,-5.854926164384791e-07,-2.207935399923513e-05,-2.3375762281001214e-06,-0.00021487548404368697,-0.00035502476091986776,-0.10767314664180146,-0.5722175885394838,0.7437842091306935,-0.046543234691740355,-0.00036588970897662697,-0.006063819894526705,-8.08877892196943e-05,-2.9379076041995625e-05,-0.010455238027983307,-0.0026094377934003867,-0.004090935400920946,-0.0014871028085421437,-0.017447743924358175,-7.3713193497079855e-06,-0.0002861489881145413,-0.002197573583759519,-3.18597545079018e-05,-0.0007105613490945236,-2.6617731125906747e-05,0.03611485532395976,-0.03198791097544369,-0.00030492081201596995,0.0021471955198191384,-0.01725302416334508,-0.0037951658274104393,-0.005636051599147427,-3.378500134674528e-05,0.04964416018810434,0.011695573438465352,0.0007683539069955463,-0.0033433089297688562,-0.00033287063147612603,-0.00831571363110389,0.0014125125431287786,0.00022535584829823165,-0.007439729724352547,-0.01380433214845913,0.001440019125680915,0.006371697036126778,-0.007609985584529006,0.0024642824857200314,-0.0004186115220786261,-0.0002354090636401323,0.0025926687512737904,0.004517037932427292,-0.002210147778955057,0.008708892204056056,-0.0014333501849619914,0.004414405382998242,0.001329830516279579,0.00014885925962099245,-4.656817901118618e-07,3.010282800930759e-06,2.4893314736229603e-06,2.758179373839796e-06,3.654489714701845e-08,-0.0009465236709661852,-7.334217535427883e-06
PC_3,1.1034192303107574e-05,0.1294743997337106,-0.009558392056666469,7.761442502585147e-08,-7.254235485712468e-07,7.675787041805382e-07,-1.1072044966420336e-06,-3.754378839482264e-07,1.0178189769755042e-06,8.39365429196326e-07,-5.677765581068098e-07,1.9577654917504132e-07,1.0396107767963417e-07,1.1244669219989675e-07,-4.046536016289595e-06,1.4117291561785862e-06,-9.80145912403348e-08,-0.015799538072347057,2.7590824459638374e-07,5.788115482974772e-07,-6.858551711170574e-07,1.7005690030374513e-06,1.0195973928775941e-06,5.044802637614762e-06,-7.162237046150492e-07,7.058064578460337e-07,-2.8584983731164854e-06,-0.23922623460014303,-3.412270725579198e-07,-3.886420188558171e-07,6.828105794170995e-07,3.709762353326955e-07,-5.590518072685616e-07,-9.357595358459284e-07,0.018560327540462315,3.284802586083438e-07,-2.3961243770451117e-06,-2.2738153686907042e-07,5.658336223681299e-07,8.302098951758065e-07,1.002452814030906e-06,1.40461121872466e-07,1.0422594019318785e-07,1.8669047968818635e-05,7.552397711879812e-05,0.04875941364789906,0.003283715774809249,-8.201320749812127e-07,4.4855849912117844e-07,9.519466961307471e-08,-3.655832366951257e-07,-3.076358987304892e-07,-1.1280394865689166e-06,8.664491404270078e-07,-3.7790594128157516e-07,1.010132321704251e-06,4.15928055128489e-07,1.434633138916225e-06,1.1837641793198284e-07,1.4110588162416806e-07,2.733979040527723e-06,-1.8727868519053763e-05,1.156951207389801e-06,2.3144556915611855e-06,1.0435981752179192e-05,-3.3017228166085395e-07,0.06117880103176275,-3.620630135379246e-05,-3.6787878504744324e-07,3.8172514173716265e-06,2.1101314410748696e-06,-1.683775993480987e-06,6.621600166767273e-07,0.00011460506279929833,1.893244251719252e-06,1.042550936658831e-06,1.0344322741838519e-06,4.009124925097135e-06,1.918059046834906e-07,0.001088293934960263,-3.6271130533540717e-07,1.1697982113827646e-06,2.8419750737710997e-05,2.0352694517100793e-05,0.0011503303886311947,0.0007785387288118265,1.1771254760198347e-07,9.611096121213357e-06,5.318228584609767e-07,5.320627074884735e-05,7.552397711879752e-05,-0.015782159562008492,-0.029044567225251765,0.044264679941342956,-0.0038735903937238874,2.8419750737710245e-05,0.0011492749578044747,2.0352694517100874e-05,-2.7213321420080705e-06,0.003164787191605029,0.019196727540379113,0.016747948296546942,0.0034567650090797618,0.022976229786376926,6.349056851954302e-05,0.0001727385659787315,0.003566833922056828,0.0004687579354438268,0.0015324336298847268,3.991825065223186e-05,0.7155932716676037,-0.35029165418080943,0.00020250396558033225,0.06707232252305914,0.013800991872562812,0.004048062542046297,0.0054404897981884205,0.0001608341486711722,-0.524248665841821,-0.013494171221142257,0.006564862994982841,0.0070354517791732935,-0.003712801771931158,-0.0009505559787594646,-0.005189141464086609,-0.0013592765880844789,-0.0038461458513623786,0.00434324385729055,-0.0019231439678764584,-0.007016229303841117,-0.003279944271993517,-0.0005986236272201749,0.0007377873117661838,0.0029206868220235135,0.00603435491240989,-0.001986711518454733,0.0086067470540224,0.002660636848590496,0.0025674931473197624,-0.0003366902263153867,0.0011409539808666625,0.0006025308054644329,2.7996298024833554e-07,4.011579367816203e-06,3.2492608466815663e-06,-4.113176714569012e-06,3.734754661306083e-07,0.0004881650172262163,-1.327984201480113e-05
PC_4,5.1327724566502546e-05,0.008091924044235324,-0.024367020671619916,-4.398550269568702e-07,1.7103640428950406e-06,4.1270089609635185e-07,2.5168465224711944e-06,8.987971211460444e-07,1.207741533448825e-07,1.4700189706617905e-06,-6.339673992439288e-07,7.332833472484257e-06,-6.208392628846704e-07,2.2466545201819954e-06,7.70774307416581e-06,3.4061503920987998e-06,1.689535845804838e-05,0.17616383942115324,-4.6666176953258513e-07,-5.562042270087536e-07,3.004882376127046e-06,2.9232618600913383e-06,8.753726726343406e-07,2.2592162734652908e-05,3.1016649115135546e-06,1.6802200125741555e-06,1.9474185411614414e-05,0.27027836712712566,1.2070418980191135e-06,9.392252455365478e-07,1.855437437762243e-06,1.38068412683118e-06,3.3513499042147662e-06,2.2180930266247297e-07,-0.0008763223225751485,-5.38736275329015e-07,6.922367119834091e-06,6.372622627160081e-07,-2.9820257300261313e-06,1.5206894292637774e-05,1.9625298873255074e-07,-3.0569160318037405e-07,3.575887414013172e-07,8.209790026159872e-06,9.586160514983356e-05,-0.057373227287929075,-0.006867512949024967,7.395980740453477e-07,7.352095556924624e-07,-4.981842040370448e-07,8.647376702818979e-07,2.853246244929867e-06,2.6704038988632183e-06,-1.8544919069563862e-06,8.814554786064875e-07,1.76048903535815e-07,3.4439739815484186e-06,3.319862950565965e-06,-2.1697950108046256e-07,-2.1348391167875527e-07,5.335476268904972e-05,7.218961108248715e-05,3.680431776732427e-07,6.164402414043848e-06,1.6166597844491493e-05,1.1923846819673326e-06,-0.37113426443209513,9.98882784927553e-05,8.569057321964992e-07,-1.7865550301311862e-06,8.874179161365146e-06,4.2993667860534184e-06,5.463315648364219e-07,0.0001503288897962098,-2.9856530332834334e-07,4.915660920970252e-07,5.273134175502119e-07,-2.9226006805853948e-06,-9.399347902763404e-07,0.000777790758475202,8.551801895604062e-07,3.461135028667891e-07,0.00024846731560228583,7.644830217400388e-06,0.0032404153733894274,0.0009802348401940276,-1.4454192393089295e-07,1.1714692910672421e-05,-1.3162217591046397e-06,0.00011650531219760544,9.586160514983486e-05,0.1759301702104351,-0.14111741235368438,-0.05640862938616395,0.01630678205803727,0.0002484673156022857,0.0032399403919277313,7.644830217400253e-06,2.9228728873101572e-05,0.0016679465996056518,-0.0760652714741213,-0.07271013425198718,-0.010206314952994847,-0.05572991551914922,-0.0002069268114770858,-0.00046165936977567666,-0.014667407507318831,-0.0017429229260064274,-0.006150412264790823,-8.473497426519507e-05,0.2965058906983019,0.6244891963448878,-0.00032350750424073207,-0.37634342049363206,-0.034717943896287164,-0.009364282834405937,-0.01310153002665262,-0.000611328086539807,-0.24850737414954432,0.03203812482580567,-0.00719837862909521,-0.0043221467448593,0.010295860635467663,0.006348541564711978,0.00506826165641768,-0.0013872049676842229,-0.008322381365528363,-0.0027364608994494967,0.004275194748799278,-0.0018408598545298055,0.013164221771614025,-0.004487299197861504,0.002877500194488259,-0.004051757030695665,-0.01497893027894629,-0.00035564526928659934,-0.022073134531717973,0.003731927992788628,-0.006392807631297337,-0.003696338270256377,-0.0060220557254540355,-0.001521900946839703,-1.730965644873615e-06,-1.0122757026886542e-05,-8.089661828989743e-06,3.2688410650310083e-06,-3.8765799143232253e-07,0.011594381517309302,1.0348637526498105e-05
PC_5,-0.000134406826356435,-0.06014489129321671,0.016641797606532442,-8.743485985229782e-08,5.438453494210904e-07,6.001005471989451e-07,1.5575803713474556e-06,1.6735307678539257e-07,6.698995372034222e-07,-2.8555142103647846e-06,-9.97790758405781e-07,-5.322418304767873e-06,-6.284382680216138e-08,-1.0948785901122166e-06,-8.708088977606599e-07,-2.5686188120915138e-06,-1.3605007094429322e-05,-0.3345475608232613,-2.7824633783606264e-06,-1.3674875481880813e-05,-3.0534820926770613e-06,-3.1388541468369766e-06,-1.1917757304065892e-06,-3.1181471007121846e-05,-3.0143355807073483e-06,-1.3196036494116138e-06,-2.440760495066314e-05,0.41881413267016987,-8.700690850026456e-07,3.474860922012349e-07,-4.929000070310844e-06,1.1619978848398175e-06,2.7558835650364768e-06,-6.485913584670953e-07,-0.12720035411927474,-6.549967405581583e-06,2.467471590725616e-06,-1.0670207680982063e-06,-7.082639347851983e-06,-1.817441175734787e-05,5.861071963842464e-07,-1.20383123095686e-06,-8.283487275391208e-06,-9.641739181251246e-05,-0.0006395559247528956,-0.28087297960772223,-0.001310566205112272,7.229111546974506e-08,1.254163096787041e-06,3.987725517515233e-09,1.7617033870055806e-07,4.40440352881679e-07,8.742518901516774e-07,-3.663127444445058e-06,2.7258925813200785e-07,6.537761846360847e-07,-7.325414243197379e-06,-2.8602397189528198e-06,-1.10378130925379e-06,-1.3161405308424709e-06,-3.9485100835343194e-05,-6.627523298768268e-05,-1.7088886426965308e-06,-1.7834918503962435e-05,-2.497324079881133e-05,-8.661678533172488e-07,0.38337327413743866,3.7823454066751335e-05,2.5501480193112543e-07,-5.767655667787062e-06,-5.971919548227569e-06,-1.0589067629493913e-06,-6.453759568419898e-06,-0.00027654979689505294,-3.900864938581745e-06,-4.643209762986303e-07,-4.623783020362878e-07,-9.759746322203347e-06,-1.3811538599182358e-06,-0.0012786967896785595,2.719220445606468e-07,-1.6243122158755284e-06,-0.0005820157624168892,-0.00015302412669280596,-0.009802840491096969,-0.0010557088310202936,-1.1378630322629545e-06,-3.690769832835724e-05,-4.927834296856206e-06,-0.00037932274455584035,-0.0006395559247528956,-0.3340171514836888,0.4333977043083428,-0.010825094298758064,-0.05785348084974683,-0.0005820157624168887,-0.009802363547670605,-0.000153024126692806,-5.8323477321596816e-05,-0.019466694837294345,-0.02831196453620646,-0.02574407779801783,-0.008758567745467141,-0.15908771086374854,-0.0002367689389641849,-0.0005404939938818486,-0.005984082534744408,-0.0010179681329388133,-0.002512213380378612,-0.00025979410399492854,0.2901907864289113,0.10943752787653031,-0.0005514771059874075,-0.12232769789665475,-0.0873345743643685,-0.023282992005731525,-0.031130152208054967,-0.00030760100261670813,0.09775982230631479,0.04227903617129874,0.009662168182225463,0.012205667273940035,0.0032027821886725554,-0.022973441972892958,0.009950167801848073,0.0009631256853961858,-0.00016407735516388547,-0.03166860812321819,0.002911536863196149,0.019136091173188024,-0.03547453803961643,0.0021148389894407307,-0.0008506529743475254,0.004341905807737072,0.008748041109461861,0.007978219758992232,0.0006940342092670529,-0.00626553553537781,0.0023642359231008125,0.0029471337330389375,0.0016608418246343367,-0.0017082975944776606,-5.373194410155258e-07,1.4139590703741142e-06,-1.2692681188486023e-06,3.0542846744520645e-07,-1.5410365337281652e-06,-0.03197661856372163,-7.642830006628818e-05
PC_6,-3.497639912594086e-05,-0.08144640279435762,-0.005037682173260824,2.3415829721248893e-06,-3.7612352087046386e-07,-5.421789583508196e-07,-1.181625229607075e-06,2.342435732799464e-06,-1.1149178164027163e-07,-5.551442223347691e-07,2.382867840378111e-06,-4.253718564051212e-06,-1.9846015514302096e-07,-6.517176970310956e-08,7.199616389452768e-07,-2.434476242804684e-06,2.5248018216128543e-06,0.04063292706640491,-5.435989831282725e-07,-2.108615834199405e-06,-1.1057649871703407e-07,4.99687502554557e-06,2.592787337332746e-06,-5.386975602011956e-06,-7.069251616634412e-08,-2.814553891560849e-07,-2.6619022751532128e-06,0.04670002843661458,-1.7664218998641367e-07,-2.0225822765060336e-06,-7.525130235204919e-07,-6.386764042607912e-07,-1.8924859536756746e-06,-3.456719998560605e-07,-0.008080802544723395,1.3584511191473355e-06,-2.6534172801686335e-06,-4.310624872186617e-07,-1.0144090725950513e-06,-3.855712514230498e-06,2.439509681479306e-06,-2.0870819829912306e-07,4.2650376951757925e-07,-2.5149202542959932e-05,-0.00012967384058921435,-0.0559665698439277,-0.004932286868406996,-1.0677372996147795e-06,-4.557001882714553e-06,-2.3914179722663676e-07,-2.5748433840781265e-07,-4.6755431508203374e-06,-2.4425425948505795e-06,-2.0022816773281514e-06,-1.8329397206427763e-07,-1.078465479520467e-07,-1.4575065260805102e-06,-6.951456969018375e-07,-2.0155104346911225e-06,-2.6670870080043013e-07,-9.23556314948654e-06,-1.3217515676789765e-05,2.2454902999116103e-06,-7.940052089305771e-06,-1.0243980376737233e-05,-1.7735788064258803e-07,0.07154777747185578,-3.175646470778983e-05,-2.0396788554609016e-07,-9.176512040010507e-07,-1.6452196577570725e-06,-1.176886429139624e-06,3.7947074734128487e-06,-7.473705222254413e-05,-8.035872085550978e-07,-9.619065186555428e-08,-9.957808946640657e-08,-1.6466787221903759e-06,-1.3251092382692356e-07,-0.0002883124437288322,-1.880611656019675e-07,-2.8596721716212335e-07,-0.00012901044130369353,-3.151845778571456e-05,-0.002259316181498623,-0.0002413777482279819,-1.9411736125091718e-07,-7.999455212829082e-06,-4.475758129319846e-06,-8.380456058340431e-05,-0.00012967384058921435,0.04064275216603023,-0.007813280705363853,-0.022602125696919242,-0.004429625567005872,-0.0001290104413036931,-0.002259163105983929,-3.151845778571464e-05,-1.302836786309218e-05,-0.0032353259832155258,-0.006266881271715323,-0.0008957131333431177,-0.003372207654649286,-0.026422775709192103,-4.4597218457668655e-05,-1.7281578175997377e-05,0.00012760985413495286,5.733599032081296e-05,0.00018922041872247163,-4.565180804059325e-06,0.030940523866757195,0.0002523036953313375,-0.0003107806235517489,0.019219673484401685,-0.015470654119227122,-0.0033642679728793957,-0.004173141425612859,-9.434910585774722e-05,0.009650547683797991,-0.5862245388536577,-0.006272981281099731,-0.018796712486864493,-0.012372489568986438,-0.0047177410552434705,-0.004765916957336235,-0.008087195222225662,-0.013397328916750304,-0.02821989536187446,-0.0030412538444700827,-0.011062775078791007,0.7936990707784409,-0.0029375254276214945,-0.0018389227516254487,-0.0033286901857676166,-0.014027195896745871,-0.0060467282778921974,-0.012755138491764958,-0.011602762037657777,-0.01130161079788971,-0.006165434213544878,-0.009664647406057223,-0.0005615110422021283,1.2880538899058947e-07,6.206657233203388e-07,4.0893552140278604e-07,-5.959494939769361e-07,-5.570121074462867e-07,-0.01649148015172489,-1.8600915679512617e-05
PC_7,-1.8344590442102697e-05,-0.20445967504265533,-0.021287404390178958,-1.060504455120681e-07,-2.409161561092721e-06,-2.8661844965714722e-06,-7.828213147362262e-06,-5.405052043300218e-07,-3.3315102652975437e-07,-1.2690304990389811e-06,1.0726434327146261e-06,2.0327088250254866e-06,-7.669212814115367e-07,-7.427143060567687e-07,-9.579825119454544e-06,7.370375269266649e-07,-5.550374146262582e-06,0.38315390263328636,-1.5324783100845174e-06,1.0127704864415499e-05,1.377862516971362e-06,3.961857376361122e-06,2.3335192789047943e-06,3.830057262981315e-05,1.440916635615623e-06,-3.82318885224376e-07,1.297712806073802e-05,0.053809354991114715,-6.196924483610833e-07,3.854904602726096e-07,-7.91308350022718e-07,-3.4822389291354316e-06,-1.0167038701226114e-05,-9.103177535408514e-07,-0.11731923327027755,-2.6734945030166636e-06,-1.5076962920563638e-05,-1.738035403812506e-06,-1.1478027297675687e-06,-8.963637652996655e-06,3.8546708403307603e-07,-1.9143875305504547e-07,-6.637663243663506e-06,-2.8564874057361285e-05,-0.00017212752101243307,-0.3398158121329238,-0.032038007981657554,-5.751771439129787e-06,-1.1031199661954025e-06,-9.65455394822587e-07,-1.4570466292294265e-06,-1.7928723598290627e-06,-2.2433179723763373e-06,-7.651747053565869e-06,-1.218501190178259e-06,-3.6241519389330865e-07,-3.895819395868139e-06,-1.149661389298022e-06,1.4592898827720304e-06,-6.636675288659544e-07,-2.4778132552682933e-05,-5.252820092768797e-05,7.656019936959135e-07,-5.054745439818646e-07,-1.6354731310880603e-05,-5.968901648204745e-07,0.2803255308759329,-0.00016571290058636952,-1.245529047446739e-06,5.091327595527759e-07,-4.168284981927061e-06,-5.758466820717553e-06,-1.119774136774222e-06,5.6897042375452506e-05,-6.263073397197701e-07,2.8812969791669133e-07,2.0114966376631398e-07,2.8288395286420944e-07,2.4642431293870624e-07,0.00016085321647464192,-1.2045766220252786e-06,5.866970073623348e-08,-0.00010355673853283995,-4.989652250430662e-05,-0.0017042463618318698,-0.0001640363792106758,-2.0338783128923903e-07,-5.761949545001424e-06,2.3084084908394515e-06,-3.175899130466319e-05,-0.00017212752101243307,0.38285776570863816,-0.1814391213989967,-0.180284092677631,-0.005409147952206761,-0.00010355673853284402,-0.0017042886578134998,-4.9896522504305784e-05,-5.023908969989649e-05,-0.013645295150240771,-0.0014616212154988806,0.008618100477056738,-0.007552733481058832,-0.18202760888578862,-0.00017764501906680175,-0.0005524070366016314,0.0032715872230903924,4.2300505348033395e-06,0.0012444707375759327,-0.00020506418877860877,0.141826638257134,-0.12640194469792332,-0.0007246403257811918,0.14102364625327451,-0.09616310196369307,-0.019436377907018854,-0.026251988757684887,0.00011379735173190858,0.16485266312849634,0.44725974907227267,-0.013338743714574908,-0.06292114344337667,-0.05039724188317235,-0.0064823852028530905,-0.017372306307861067,-0.030283680896972448,-0.031124984966805734,-0.08647232788012979,-0.011502409489254227,-0.036479435163374214,0.17902439466662476,-0.007147405182462575,-0.0035344186094798872,-0.009392694702081697,-0.03990379695167724,-0.01994393512305523,-0.029139413214289204,-0.037616433780104847,-0.02520152965303001,-0.018915640836564596,-0.020830997718326933,-0.0015293484186624424,1.34009082704248e-06,6.327102531768096e-06,3.5508426576953463e-06,-3.6532705646599435e-06,-2.052401945306786e-06,-0.0666689413676933,-9.044159660136522e-05
PC_8,2.031122921813851e-05,0.12984851971461045,0.011923360561896468,2.0758015589553147e-06,4.6318812207957194e-07,6.294126694457447e-07,5.12938079731684e-06,2.2034106335611092e-06,-2.9892860536895327e-07,-7.06281579311574e-07,1.3928183140166084e-06,9.947131951446031e-06,2.2140389452363074e-07,3.894158005279813e-06,7.131778039237702e-06,2.161826969937497e-07,3.1327865956248813e-06,-0.21546545497276107,-5.049617298191755e-07,-6.77553172673262e-06,-2.032848999078407e-06,9.186601537120032e-07,6.524031665039454e-07,-2.8018642284858425e-06,-1.9229638386179804e-06,-9.267644614594645e-07,-1.2299934712144015e-05,-0.0692983733146493,-1.4285972644471152e-07,2.5519605249322875e-06,-1.7318461298115866e-06,6.981461828991979e-07,2.0099674400865607e-06,-2.785980891764845e-07,0.08533099093735205,1.2260131700080169e-06,9.231353168150595e-07,3.992910842137507e-08,-1.6997201972600602e-06,-8.666419171536804e-06,1.786653080823936e-06,-3.610205725873569e-07,1.0685336681384905e-06,-2.1199518057216112e-05,-6.400351290796248e-05,0.18673632356368078,0.020765128806317434,6.168964523147993e-07,5.112984194215126e-06,-1.71302864652336e-07,-9.430308328790691e-08,4.536872619746424e-06,2.794389729889057e-06,-1.3458800371277976e-06,2.7460413742071513e-07,-2.187264807446198e-07,-1.9420315623191766e-06,-2.3860250908084454e-06,2.0187681852172213e-06,-3.591384645906704e-07,-2.0282813033941624e-05,-2.075547956180989e-05,9.830593928067487e-07,1.221044011266441e-05,-2.725345996007223e-06,-1.6829095290587073e-07,-0.1457912446728467,2.6816083853976174e-05,1.1417684272058856e-07,-3.660837444279416e-06,-3.894623647195406e-06,2.985837443432683e-08,1.3540928234996054e-06,7.8498929670195e-05,-1.495466303155782e-06,-7.024649188704005e-07,-6.069722276211056e-07,-6.138501446833355e-06,-8.150583596629104e-07,-0.0008486036092506915,2.3159325612068227e-07,-9.049103168954911e-07,2.268931787665735e-05,-1.4348233165347055e-05,-0.0023816250152249707,-0.0008560715028367258,-4.1331644100864334e-07,-8.343638315513838e-06,2.8529687471662974e-06,2.5417317582182277e-05,-6.40035129079625e-05,-0.2152280876790212,0.1111330275254121,0.10853471893859735,-0.003926850163193132,2.268931787665847e-05,-0.00238072611891447,-1.434823316534702e-05,2.9431906759076473e-06,0.001920636734639993,0.0011392287255805747,-0.0014230308127272653,0.0029800323984367602,0.11193277475785021,0.00014246492772867928,0.00021677558589506808,-0.0012168213608913887,3.341408131780529e-05,-0.0006497250531066546,0.00014482871324899356,-0.08298077947038508,0.036934115745413595,0.0004968616673420603,-0.08062874261088854,0.06399341195928841,0.01285840533943428,0.017236847245677537,3.0093556662780986e-05,-0.08124015539587782,0.6242948624327215,-0.043351341432226166,-0.12532376213553206,-0.04965951948029344,-0.017161663001357578,-0.030975692106870317,-0.030417665293133098,-0.09524369474650789,-0.13712246843621476,-0.010488269844033699,-0.11188480054642734,0.524005561219644,-0.0176525937918925,-0.00866789546394737,-0.01724463460844083,-0.10056791146441711,-0.036033938694037364,-0.0760850857732055,-0.05300828895215373,-0.07713591671550155,-0.033415620357995376,-0.06301112345648223,0.0003833569308725325,-9.328983214529035e-07,-4.903245178043931e-06,-3.55525018804156e-06,-5.453959248375873e-07,1.0851631391620063e-06,-0.014249078702077303,2.6036045982231284e-05
PC_9,-0.0001126029658165335,0.6520651355557119,0.03032607636823588,-4.621420355843675e-07,-8.269070937150236e-07,-1.4708689225761962e-06,-9.40289610057432e-06,-4.122412715634738e-07,-7.101548338273034e-08,-2.0845671274694055e-06,1.0647375522539193e-06,-7.356576348260813e-06,-3.756439134194878e-07,-3.81592195191488e-06,-6.035883047150747e-06,-1.992920128479625e-06,-1.0426507283264885e-05,0.027334529091473887,-2.110687485285326e-06,-8.782636421272166e-06,-4.141870919502355e-07,2.974764702901034e-07,3.0492071989747516e-07,-3.6010225906530843e-06,-3.203943892983972e-07,-8.756857450091787e-07,-3.980849242145464e-06,-0.3666676972779322,-5.973359064153551e-07,-7.209502256497248e-07,-4.342858831829271e-06,-1.4900132515832504e-06,-3.173468859118759e-06,6.444874954039295e-07,-0.0337623754116256,-5.0545056636550355e-06,-8.353028666987562e-06,-1.4267569642713032e-06,-9.936071153885051e-06,-9.125813803521497e-06,1.4378324443920239e-08,-6.110888909833755e-07,-9.043793386294325e-06,-6.852640248240499e-05,-0.0004048285514239357,-0.26980329370289485,-0.03144874930504719,-4.230887191744252e-06,-2.3229267832015944e-06,-3.807497861721113e-07,-9.50736428213233e-07,-4.4428358016130424e-06,-1.5985167221041333e-06,-1.0314237413180076e-05,-4.472868117382597e-07,7.207167398846847e-08,-5.9169214994342046e-06,-2.8020039545422025e-06,-1.0111481987582483e-06,-8.933100010240687e-07,-1.7527687866915307e-05,-5.0575070570420794e-05,-8.655968292777449e-07,-1.5359730058593257e-05,-4.039793190550453e-06,-6.030681089370303e-07,6.18345924180647e-05,-6.741609799660173e-05,-4.737236815133298e-07,-7.319409823625586e-06,-4.094486356558307e-06,-3.5378933130135507e-06,-8.651028525005909e-06,-0.00016706148807043038,1.1364091678928902e-06,-2.367203686004359e-07,-1.2520036690984974e-07,-3.8530212099314656e-06,-2.0476261943469566e-06,-0.0004818304447750294,-4.1345182571155695e-07,-7.4763113277141e-07,-0.00024007962198863933,-9.13052615386288e-05,-0.005212541719048353,-0.000669315595129217,-7.132407285934385e-07,-2.714144237313185e-05,-5.413169375028419e-06,-0.00028574045170494004,-0.00040482855142393563,0.027552260612072794,-0.04222955057768888,0.12302319870152983,-0.0877711578665276,-0.00024007962198863597,-0.005212111003836372,-9.130526153862891e-05,-4.197536276810914e-05,-0.014584451067830313,0.030725907292897408,-0.011946304218997846,0.0057227034209887855,-0.13196325620150612,-0.00014559522116865825,0.00022612523146490102,-0.0033838644911839363,-0.0003975944381060552,-0.0008447194557995994,-0.00017062064641297416,0.11467570060960539,0.012211177106878348,0.0012506864760045775,-0.331372612215067,-0.07184123497220307,-0.009955164680637186,-0.015186053459986372,-9.547648716106398e-05,0.4124901963503899,-0.05580085290875777,0.018053412841609825,0.03239618794568333,0.030362075866999044,-0.01055405594173784,0.009927002914992645,0.0017639613894930599,-0.0248058800754644,-0.11099037998695938,0.008619300964862318,0.014686529401830406,0.018344160949900486,0.0036992712400503638,0.003509235925982124,0.004402069747868228,-0.00642013994806555,0.019430160195271353,-0.0021655293531689444,0.032200818318356195,0.0035774557096471017,0.010949115453292623,-0.0023877305189052064,0.001860360537115042,-2.10851733188372e-06,4.288244023039441e-06,-1.0713580003608539e-05,3.6037779786268345e-06,2.3140702295741396e-06,-0.0005943124058480866,-5.962225894282629e-05
PC_10,-1.7177735277351275e-05,0.05344472652951665,0.002309726761258832,-7.286602364542372e-08,-6.042313837641144e-07,-7.61945585635998e-07,5.999512967119758e-07,-7.629479116533222e-08,-3.002522057276094e-07,-8.760289238879393e-07,2.9850308770618117e-07,6.384101951698723e-06,-2.2813900285578725e-07,-1.1456818858612827e-06,5.708652014352333e-06,-2.9307740119777215e-06,-2.0595945322832154e-06,-0.008920242879938145,-2.908493466957651e-06,-4.2497062160279375e-07,-9.040137178562002e-07,-3.2354440893112013e-07,1.2066277410571757e-07,-6.356262926887624e-06,-9.14652657835191e-07,-7.363056442888372e-07,-2.457942082659259e-06,-0.032381553107475106,-2.6206516618235143e-07,-1.180669161188197e-07,-1.6361155258971805e-06,-9.411530034232618e-07,-2.6402809830017738e-06,-2.5715216203752224e-07,-0.024883223003594718,-3.847181000502717e-06,1.6230629783755794e-06,-7.901587930247575e-07,-3.141605567741641e-06,-9.409138024462012e-06,9.806025512440647e-08,-3.3531945688397915e-07,9.545891631164973e-06,-4.962277797459766e-05,6.166451962367239e-08,-0.022765886361652846,-0.008026335681323207,-4.030202843106573e-06,-1.2166812730495977e-06,-2.132573306016728e-06,3.927790363808021e-06,-3.4742602352339604e-06,-1.1614709203656944e-06,-6.9198717174731545e-06,-2.867742913232464e-07,-1.8242333037312084e-07,1.3549984581455366e-06,7.375535750123331e-06,-1.2616656766253277e-07,-2.1657338311449734e-06,-1.9809743017688506e-05,-8.644990222727263e-05,-2.9664373479690255e-07,-5.0554007918527e-06,1.4984708738795936e-05,-2.720254281581871e-07,0.03511357223763472,-7.204233648179547e-06,-4.5075002797298985e-07,-4.735078822728824e-06,8.021499382396942e-07,-2.6286630567150395e-06,-3.408818414340223e-06,-9.052115900047904e-05,-2.2626068968223828e-06,-2.463061388051035e-07,-1.6026828576011018e-07,-6.531895506903646e-06,-9.70869850192369e-07,-0.0004422734079708031,-3.021142710925384e-07,-4.284921835007404e-07,-0.00013263838899116895,-4.7122828541858596e-05,0.008159497298684006,-0.0010418071850256834,-4.17232417246205e-07,1.4630662497820431e-05,2.7354516787422534e-06,-8.858272475235308e-05,6.166451962432291e-08,-0.008802732175012913,-0.013608684914402832,0.004837984503602841,-0.00721092196130254,-0.00013263838899117057,0.008155213659475155,-4.7122828541860805e-05,-1.8120226260991313e-05,0.016826960666914824,0.005261395027650904,-0.009050605024624315,-0.0018088324501934433,-0.014714995160620059,-7.37278973676891e-05,-0.00020156488808290986,-0.0003681146929135638,0.00012882663664734624,-0.00048045407165860007,-1.9772487334558365e-05,0.03614233222710357,-0.0009306206249555498,-1.2769057694068748e-05,-0.0632207683702507,-0.015257487311407646,-0.0034121147059078655,-0.004278861877321923,-6.640937322050852e-05,0.07236454410215179,0.026714814938482136,-0.012419004592580303,-0.40074961101105466,-0.025729139215357123,-0.008475753989243604,-0.009157278826529874,-0.015493204059646522,-0.07810379137012498,0.8869817210300193,-0.0028817271333133267,-0.09872350247802575,0.03559678339494571,-0.004999585937449276,-0.0017306912923626663,-0.005003009539347145,-0.09248802092654826,-0.010301163264426717,-0.0490960281776483,-0.0240421829874756,-0.04402328864398375,-0.01098762661561819,-0.03206917126207681,-0.00014604623636643285,-3.4143066192732275e-07,9.0599789650975e-07,-2.2958698494631632e-06,-6.751094176640816e-08,2.9571434486991035e-08,-0.022653950256699532,-1.777230544619184e-05
PC_11,-5.527761996730854e-05,-0.07331979337046887,0.007338188910982559,2.7120072094294345e-08,-8.123393504533283e-07,-6.130207170773616e-07,-3.4649903024874806e-06,-9.755896362984018e-08,-4.835087559391937e-07,-7.561018099955241e-07,3.735146148209356e-07,-2.1487370452377696e-07,-1.7506071106621057e-07,-1.4059224335838394e-06,-3.172230804513593e-07,2.3324617656750313e-06,-4.1932955108237024e-07,0.006327587308633975,2.5386398028459656e-06,-5.415923210835838e-06,-1.3009070152225632e-06,-1.3048377952790471e-06,2.3652050681888248e-07,-1.232843752474455e-06,-1.9873876893339304e-06,-1.4181285984959935e-06,-1.6865110318009524e-07,-0.028261084519144275,-3.2256881221659484e-07,-7.93173544032244e-08,-1.9684004732567484e-06,-1.0141420719502608e-06,-2.987717628785691e-06,-3.9405209793233715e-07,-0.00880530978641525,1.534133205254621e-06,-2.5495377563216422e-08,-8.597580720513918e-07,-3.830020501046418e-06,-2.325744588902855e-05,1.5295155851435598e-07,-3.5262666499440183e-07,1.1787076036159581e-06,-2.384150344258675e-05,-0.00015653708228838883,0.04845574001375021,0.0019098643577274877,1.3420109946852893e-06,-1.7193526577209272e-06,3.8936777011740915e-06,1.0514069238183556e-06,2.0713559775220942e-06,-2.032965999089458e-06,1.3954473815677622e-05,-3.695697154167908e-07,-2.6356223518972566e-07,-3.127512231847371e-06,1.427972052062882e-06,1.8313648189438408e-07,4.036703092487785e-06,-5.052207681392176e-05,9.731788739766233e-05,-2.975840747173263e-07,-3.7815550793399174e-06,-1.552180731366865e-06,-3.33128994458764e-07,0.04506366854250693,-6.974791043669664e-05,-7.185988168506851e-07,-4.0929485083853233e-07,-6.0544782403937925e-06,-3.5409742440357446e-06,-5.774696737325738e-06,4.4693082811128804e-05,3.8079184611323874e-06,-3.950495983226096e-07,-2.1097748471315328e-07,-6.686202204408201e-06,-2.2334490553808894e-06,-0.00037039212004443976,-4.061676907899939e-07,-4.0166725089230633e-07,-5.262382523141151e-06,3.318725585429821e-05,0.0013650352227479352,0.0005735701650296636,-5.208810845002809e-07,-3.0581964441045984e-06,-6.856223711933325e-07,-2.9973259246163795e-05,-0.00015653708228838904,0.006345436105393241,-0.010758948540796356,-0.00510732528706579,0.004190168110043315,-5.262382523137262e-06,0.0013636539872224505,3.318725585429769e-05,-1.611228405840597e-05,0.0041117401182187464,0.0028621887357564257,0.012859783556303205,-0.0009409483792473131,0.03127880767258112,-7.540069126517938e-05,-0.0003900089255181746,0.001313351345112975,0.0005017401089465863,0.0004202549874808732,3.0859921661875316e-05,0.025364415231882983,-0.025908556585662944,-0.000257246627110459,-0.11923294470372509,0.013383503176596824,0.0013787972688208074,0.001774458039473463,7.814086134905871e-05,0.055558805006562725,0.04253598570153274,-0.02436175551426084,0.830736869300676,-0.05063349839445871,-0.006963895682720169,-0.01687110424965748,-0.023993295142144693,-0.130545258164923,0.2739657617549205,-0.005830928242910149,-0.31998333291304204,0.03880240393450565,-0.010126150847950958,-0.0034495278365378767,-0.00889441542276796,-0.23168301185005066,-0.022200361568226388,-0.09146442664038663,-0.04644710901580586,-0.08830826035945609,-0.019361295181042446,-0.057123165591458275,-0.0005282924827117684,-4.4989503619018607e-07,6.544314787116384e-07,-3.6244925732506936e-06,-1.2109025077774166e-06,-3.3834786635612896e-07,-0.027262773874991653,-4.1925096258761215e-06
PC_12,6.29890743110248e-06,0.024087122666915633,-0.0033107470931675142,1.1554636075434936e-07,-6.10670483720474e-08,-1.1836336636771722e-07,1.2438964865730748e-06,1.1707524142853809e-07,-2.3590441471359885e-07,-5.202356402542185e-07,-8.491895603715549e-08,4.840144219695527e-06,-4.091438226411226e-09,2.8388026235282027e-07,5.717647617638905e-07,-2.8772307646522666e-06,3.1766144848732747e-06,-0.0029224899036047014,4.465549572500727e-06,2.4654345599801203e-06,-4.511366992823729e-07,4.134686659072739e-06,1.884303633264972e-08,1.2737259970797138e-06,4.0559691248422125e-06,-3.186595680819415e-06,3.2037529610895454e-06,0.007443674532277816,-1.0214168535971346e-07,1.3255010067325657e-07,-3.6965672067790223e-07,-2.92705858440101e-08,-4.235498723414999e-07,-3.140221492215953e-07,0.0063161734909489686,4.560176799640273e-06,3.4390703040117904e-07,-2.8176340252818307e-07,7.103784155104188e-07,4.309246271981277e-05,6.279052184969547e-08,-1.6755547617899728e-07,-5.530428410934233e-06,-4.91787537059904e-05,-6.093552573810043e-06,-0.014107300170793528,0.002610197295661183,4.828693129988642e-07,-2.7460514585441083e-06,5.512341709248947e-07,3.2426702438879853e-07,8.415981147978299e-07,-2.948777208224007e-06,2.913998812235615e-06,-1.2686354555193832e-08,-1.583966443320108e-07,7.704280049113544e-06,-1.3864432915936756e-07,-7.077345311391108e-09,4.5126035035479985e-07,8.064473618529019e-05,-1.4386062218946921e-05,-2.461492060915711e-07,-2.2230126146207015e-06,-1.5430132394212218e-05,-1.0937521419701504e-07,-0.020724842877142158,-7.893342797337874e-05,-1.5535761765727652e-07,4.745007309408297e-06,1.1455254861349748e-05,-1.9772993494031332e-06,1.619431561049713e-06,-6.982455898543738e-08,9.112850309241343e-08,-2.884841854405558e-07,-2.631123992536625e-07,2.0136996268848477e-05,4.344417046859623e-06,-0.00023115691978475156,-3.0533365946635313e-08,-3.4251261996830163e-07,6.141107311797081e-05,1.726294714423076e-06,0.001064555950833608,-0.0003199255828092093,-2.3572834661171474e-07,-8.355007198102178e-06,4.688508236277153e-06,4.526089473163176e-06,-6.093552573815247e-06,-0.002902975567465247,0.005576921224550812,0.0035751846010923976,-0.00963602505593095,6.141107311796908e-05,0.0010642975731465776,1.7262947144222086e-06,-7.898643018794133e-06,0.0022734520523666445,-0.005174543453085191,-0.011929984536396637,0.0005905825333842735,-0.0042473947620786795,-2.407321368650653e-05,-0.000496091607307356,0.00013716241968864812,-7.949555763983422e-05,0.0003159417271727562,-1.3515005543606571e-05,-0.01067560616582377,-0.00020108609264364585,7.84641311862397e-05,0.05945695827886444,-0.0034869418630441226,0.00012103968557038158,-0.00033132274563401135,-7.611887168561065e-05,-0.02396397490129771,0.018085829789167736,-0.013381976588637053,0.098081438634283,-0.03257184908715556,-0.003373788657590783,-0.009938302555248647,-0.010486134026691667,-0.15306357558869313,0.05507861126216154,-0.0033064112055846175,0.7863424506009371,0.015099874910662612,-0.0030474869683700806,-0.0017471011249041712,-0.0040250235063002664,-0.5769612546722351,-0.011986229432897476,-0.04253487268009243,-0.027579343698326892,-0.03746746770679915,-0.010619168756986753,-0.019634704556900417,9.45030649972256e-05,1.617507896396039e-07,-6.077974685851126e-07,1.55282787188904e-06,-3.42916195764765e-07,1.3230780385133177e-07,-0.01105380681601622,-5.1068055799642555e-06
PC_13,-5.098600727018182e-05,-0.06675386451188113,0.007778710703899055,-1.352996922780042e-07,-2.5706701267669274e-08,5.128542452728646e-07,-2.7655487791419797e-06,-2.982968732578861e-07,6.934793372603831e-07,8.954440240682704e-07,6.937574772991617e-08,-3.770932609274691e-06,1.1193148269361686e-07,-8.905757538368864e-07,-1.8609930724500234e-06,-3.548334832459421e-06,-1.7362783569924156e-06,0.005040029061008894,-1.7736363160936186e-06,1.0049924728999793e-05,8.990423646659806e-07,-1.4817454698778931e-06,3.370411094660852e-08,-5.031303016378441e-06,-1.6069093739523588e-06,-3.1432434772216133e-06,1.5869171166860152e-06,-0.02181557920788746,-1.976479704901557e-08,-3.003129516454539e-07,1.685844561675337e-07,1.0168401105847824e-07,1.077405017493871e-06,4.182873016960327e-07,-0.01208064280196976,-2.0685037305276756e-06,-6.060747758882272e-07,5.19382577643664e-07,-1.909244031548222e-06,-1.3410831887889787e-05,-1.0316110588241432e-08,3.1274587327546216e-07,-6.87870084063616e-06,-4.797208026412637e-05,-0.0001134756909225024,0.04474521495740597,-0.0029554717630595967,-6.469594373818713e-07,-3.535125524494918e-06,-7.396615298123008e-07,-6.246825195833439e-07,-1.640343999020368e-06,-3.5729181102474945e-06,-4.4945405917013554e-06,-6.602052171471464e-08,4.2016090172500786e-07,-2.274889079781502e-06,2.4272740956567574e-07,4.820572207390111e-08,-6.083636975552723e-07,-2.3837335570694573e-05,8.752513414922447e-06,4.431864672638935e-07,4.4871180520904145e-06,-1.3503675956139799e-05,1.3429194944919009e-08,0.044408195780927036,-0.00010398301166112149,2.437666466157426e-07,-2.686159641285984e-06,-3.455746365765551e-06,7.557872437714705e-06,-6.490904416822684e-06,-2.072553741581831e-05,5.586975971525734e-08,5.580298863979596e-07,4.794212449338864e-07,-4.6531537281937194e-06,-2.0494996569778344e-06,0.0005897339901788602,-1.2853282335325157e-08,6.170444733821822e-07,-5.266365659113096e-06,-7.557270609930564e-06,0.0005351303929754941,0.001012119786062157,4.330463049519932e-07,-4.087082234453029e-06,-2.6194811284888932e-06,-6.054162772540161e-05,-0.00011347569092250197,0.0050589983153634145,-0.003234931271309437,-0.0021501166671586054,0.0017169978319755545,-5.266365659115264e-06,0.0005354567249167257,-7.557270609930672e-06,1.648663085171946e-05,-0.0018165922374477903,0.013377969903006767,0.029409426017639618,-0.0016912539098842307,0.03748926886367747,0.0001797423173333355,-0.0005930850136590788,0.0038190973820613223,0.00030610305995200284,0.0014976424357550748,1.8681016958874947e-05,0.022955297728083312,-0.031303678844668725,-0.00026131347913267223,-0.1291113211178554,0.018094879149708167,0.0007624180371511129,0.0018809030059838455,0.00015096761326348804,0.0330182558346257,-0.027406198056627286,0.02675459840014493,-0.1397970836229125,0.06029402719230151,0.007370002250461255,0.016737262620986335,0.019569878352468435,0.6781278560795345,-0.0885212553129607,0.005583873047673172,-0.26411791724852246,-0.027026345052816703,0.004779066240949264,0.003123579218518649,0.007594575314051592,-0.618531724002725,0.020500458302825895,0.10557702883857524,0.05408060779824505,0.07510482357520933,0.019706434051640728,0.03846774663917726,-7.014266448344963e-05,-4.119902365260721e-07,1.8096444240690277e-06,-2.900486523732193e-06,-1.0575393352140371e-07,-1.382737677000974e-07,0.022091005199575256,9.589698746723337e-06
PC_14,4.2168195176710846e-05,-0.1551565832636352,0.013108170339544867,-2.564306785489412e-08,-1.4965653064337447e-06,-4.156141588523843e-07,-1.0508227902744638e-05,-4.254117772078958e-07,-2.151443315584478e-06,-2.998469428028283e-07,9.915316652175932e-07,1.238999177255451e-06,-1.1599602925405073e-07,-2.76090386847061e-06,-4.618937705633264e-06,9.101307647807477e-07,-2.512622248512786e-06,0.00657960450400355,3.3413388663694477e-06,6.131807888005991e-06,-5.4138710186280026e-06,2.4752272237277273e-06,5.391719032216136e-07,-2.2937099466713295e-06,9.875864540181967e-07,2.1051516705325457e-06,1.5850948240081486e-07,-0.0776160416998754,-3.5211336979479313e-07,-3.802372085526251e-07,-3.6697832865584257e-06,-1.4637565801944863e-06,-5.830763945460782e-06,-3.1475439919981783e-07,-0.025672038307587138,1.528322205278913e-06,-1.9051124992104304e-05,-2.2807010771065098e-06,-7.606020663757768e-06,6.23692894552311e-06,3.3461867393663253e-07,-4.5849588588246787e-07,6.873989020740536e-06,-1.2717721740775848e-05,-7.354341195664471e-05,0.15091413524157907,-0.004921550115439598,-7.236913832282235e-06,9.507675757627117e-07,1.6956462081723435e-07,-2.488231432592241e-07,-5.0230427288733325e-06,-1.8499888788191103e-07,-4.594941192428807e-06,-6.974052835095353e-07,-2.811168966440297e-07,3.1189970563881694e-06,-3.194013528746032e-06,6.289543712999191e-07,8.182508662999265e-07,-6.1136311871635984e-06,4.731074639632241e-05,-1.0431970962100634e-06,-9.3434552664132e-06,1.5207940289605013e-06,-3.466354175318912e-07,0.09316916325212912,-5.974270157378236e-05,-2.5710473146834073e-06,-3.7188819326762967e-06,1.027978806075649e-06,-1.3717495974915114e-07,-2.1770859315366426e-06,0.00010516859457372911,1.6397976706057583e-06,-1.4093737669372474e-06,6.133406582480591e-08,9.34795297382018e-06,2.248580352513804e-07,-0.0007326758011981776,-7.482785143133241e-07,1.638428097204157e-07,-1.1314952325825085e-06,-6.388627320098178e-07,0.001623266533082337,-0.0013119351578443211,-1.7696355082856132e-06,-1.6840200370528066e-06,1.8374167652641753e-06,4.121752586428145e-05,-7.354341195664471e-05,0.00650984927508285,-0.030473176257727674,-0.03038231211831731,0.042143506244052956,-1.131495232584677e-06,0.0016225186483699392,-6.388627320115525e-07,-4.042242661529867e-05,0.010695350405075547,0.016532762430519217,0.03744858435014965,-0.001892807735508699,0.09977455764676274,-6.867056416250388e-06,-0.00011779721385809898,0.006012652864773944,0.0007151329188590527,0.0019098299822125266,0.0001170616665690259,0.0650171763452022,-0.0723955923334077,-0.0005162292914284923,-0.3157398505038949,0.04277235403930621,0.0032842831391260707,0.005571303070295603,0.0003437199348999698,0.11116972574583779,0.03522623354976621,-0.031315277745092546,0.0641270866320886,-0.09496755936258078,-0.0025768173429460673,-0.022117446937781563,-0.03429069037850567,0.47466346744983956,0.05898576911536745,-0.00592757218846431,0.31535444262098516,0.027058715334161088,-0.016088232166889857,-0.0028213034809757426,-0.010175912330935224,0.338212332781225,-0.03230568618739106,-0.42241888210350953,-0.084265678866154,-0.3608701096625573,-0.02478274241755814,-0.14046789673712454,-0.0008016461778503695,-1.0040494360148375e-06,2.247075479001062e-06,-9.863805500632136e-06,-2.698698919682189e-06,-4.804689554388845e-07,-0.02744136899981172,1.8575550028398977e-05
PC_15,-6.422968105856675e-05,0.3383413037058862,-0.027019532207654122,3.065845694946376e-07,1.116101570108885e-06,-1.220507767921153e-06,1.434220645055162e-05,1.0101908220483402e-06,-2.3976509255091427e-06,-3.915124453052199e-06,-1.5983442933631409e-06,1.0132531824968982e-06,-9.996844296811247e-08,3.2046205474395295e-06,5.736848114668014e-06,-3.3630148295049622e-06,-8.944756051343372e-06,-0.022773656461372888,-2.230554514981442e-06,1.923535765863127e-05,-2.9438819242194603e-06,-1.1940450638514566e-06,-7.573995171594738e-07,-5.556357144664847e-07,6.270578945533067e-07,-1.2142710323070904e-06,1.7323851736750218e-06,0.10712016779740982,-1.6073627005785962e-07,9.354437381058067e-07,-6.915478096836125e-07,7.154626183725199e-07,-1.2763007434246632e-06,-1.7771140070863982e-06,0.0630823360929777,-1.2734064601573877e-06,1.129376522397696e-05,-5.936849266241986e-07,8.209678783218288e-06,-6.841767385287962e-06,-3.36463509921669e-07,-7.967800374616152e-07,-5.488975012091381e-06,-9.843437722661984e-06,4.3109299065246034e-05,-0.28411743658636035,0.01004900607442031,5.264153634242327e-06,1.5728434233807829e-06,9.510267681707233e-07,1.4496630852256764e-06,5.965663191610679e-06,2.145299685295921e-06,9.758937638896956e-06,6.642499141078027e-07,-1.0935151146704327e-06,-5.587140090252833e-06,-5.207287552391843e-06,-9.641477919369422e-07,-3.75285026064893e-07,-1.0000522218663521e-05,4.6809383439168524e-05,-1.817502776405056e-06,-2.4100514621123374e-05,2.9456220373129003e-06,-2.697581690282271e-07,-0.18437858128088835,9.544972713649907e-05,8.59750739797988e-07,1.4149016203543962e-06,-4.362330375971341e-06,4.393506459081836e-06,6.050771807450048e-06,-0.00024116703284180895,-3.571938716267448e-06,-1.3147093757697828e-06,-2.0855607908580065e-06,1.922016154368302e-06,2.315365262372998e-06,-0.002219029887781338,5.580476148646984e-07,-2.8762635201339342e-06,4.7691130040957916e-05,-1.1968186601078181e-05,0.004794418972559696,-0.002574779425476064,-6.716612970906321e-07,-2.587172527986775e-05,5.984983170237906e-07,-0.00018853547546613346,4.310929906524907e-05,-0.022636297273577227,0.051468639674256696,0.07677502740209009,-0.09426490259814868,4.769113004095683e-05,0.004794672976879617,-1.19681866010752e-05,-3.850603917911248e-05,-0.016177466384826245,-0.025724386557733805,-0.06422779348983648,0.0038354624773991445,-0.18053934193260976,1.58979550456637e-05,0.0005894653184004954,-0.011128742865827369,-0.0013444047787333608,-0.004200254291414366,-0.00017835956619808687,-0.11261785478108291,0.12445793013132166,0.001100070081902946,0.5536902819557642,-0.0839255173863631,-0.002919564865753708,-0.007437445328869051,-0.0004095572356167983,-0.18903588483979547,0.02447740412050017,-0.04196242386583444,0.14784323284625064,-0.12455503617375083,-0.022127476754055724,-0.023265722819140345,-0.021468734133853563,0.37720582705104255,0.11500468529052488,-0.007622509906613072,-0.016088998224201984,0.0376364777562864,0.0036075188213785265,-0.005720641315021866,-0.009484340685559506,0.05713228344592181,-0.022769337954967203,-0.3252314185495241,-0.0956409336725986,0.011151804092821821,-0.0288573388679158,0.015438753531043528,0.00126022446913815,1.3594350897370268e-06,-5.953849861920177e-06,1.6046296646604662e-05,3.1786557208440794e-06,1.1295556717306453e-06,-0.04591790328042361,-6.11553147151633e-05
PC_16,5.174202281948145e-05,-0.07599402216451417,0.00024175592633695828,-8.331470409145975e-08,-1.0906131956214815e-07,5.370847814753499e-07,-2.5007747811375824e-06,-2.9187607841762997e-07,-3.745545674838091e-06,1.883131587054887e-06,4.488153031445563e-07,3.0176611710841517e-07,-2.1464442778729165e-08,-2.9319344668939096e-07,-1.0120685751124903e-06,-3.5151881050982797e-06,3.8199978436015414e-07,-0.0013154960035846874,4.766251383570008e-07,-4.984733899329741e-06,-8.029586792898669e-06,5.754521029133208e-08,1.4957413560501287e-07,4.763004774782642e-06,-3.8804504906564397e-07,3.1272763723055874e-07,3.0593641994758336e-08,-0.023831620297718153,1.8477919783155272e-07,-2.707876543273091e-07,5.236241073278136e-06,3.910546517160718e-08,-3.412672431202246e-06,8.574051107275926e-07,-0.010113916231213674,9.043438080638634e-07,2.1857664463146415e-05,4.394217749583649e-06,-2.3273857272649006e-07,2.5699243147495098e-05,6.346121302334181e-08,4.7222776677106556e-07,1.566353298820258e-06,-3.562019741090803e-05,4.813792711701528e-05,0.06440868783777667,-0.001346040248195313,7.042223612040903e-06,-7.574736754142604e-07,-3.004805865566688e-07,-4.574540650363021e-07,2.7544864748944332e-06,-5.125411152657794e-07,-1.441629015543999e-06,-1.2332573165677453e-07,5.387288854105112e-07,5.816103071907793e-06,-7.2429817586343185e-06,3.321358299797063e-07,1.1770543397178848e-07,7.56356782541847e-05,-9.566157837765342e-06,4.675596976877591e-06,-7.641480408429255e-07,3.950290245967412e-06,2.362556853425569e-07,0.04669404602934715,4.789073376223942e-05,3.831918958718323e-06,-3.6046139098310534e-06,9.669507039840254e-06,-5.180103496939671e-06,-3.772949914303443e-07,0.00014142608665911136,1.277234556378167e-06,4.478042278005051e-06,9.225525199204568e-07,-1.3950000441798928e-08,-5.047914416432271e-07,0.0035741174754404647,-5.453034249700613e-08,1.2643955061652872e-06,3.3982779502328246e-05,2.5575850764601466e-05,0.0006871698545984108,-0.003559715804921832,4.3312663609401366e-06,1.6264673423250966e-05,9.179152154418623e-08,8.784245393196393e-05,4.813792711701528e-05,-0.001372954505629033,-0.01617742771776997,-0.025192092250277243,0.03381430212030112,3.398277950232738e-05,0.000687127186820128,2.5575850764602117e-05,0.00010664496790451731,0.008026703641266626,-0.009874156713156185,0.01766735025383427,-0.0018489118910965975,0.04145839014453978,9.829567575663222e-05,-0.0001393770949323983,0.0028946135612924525,0.0005599674722894209,0.0013950572823054012,3.361649914708836e-05,0.025094235562312626,-0.03599510221434564,-0.0002443370873466672,-0.1070297473208463,0.020053605445097364,0.0013903325371002334,0.003006926545018584,0.00012693090232757912,0.0413523104407022,-0.013340901592233664,0.023837903696798404,-0.05259187998199863,0.08073623609071912,0.008035012609552937,0.01201064867174715,0.015841691785992783,-0.1160610730026761,-0.04543245991795552,0.0034016244489096705,-0.032527753215305655,-0.016966408657732777,0.00253236184292319,0.0026322061261002776,0.005753692744411248,-0.05587185252948611,0.014988102083020947,-0.671808199719927,0.06474127604395838,0.6919935401255335,0.016045212467616185,0.03828511283852046,-0.00017934294683710945,-4.398337608519155e-08,1.9930011306185203e-06,-2.791382131178845e-06,-7.450507677747212e-07,-2.3713403132315537e-07,0.02392743233735109,1.964220017289989e-05
PC_17,-3.255737830122635e-05,0.0005484260938675989,0.007540211705792393,-1.4766339332056636e-08,-1.1681507141470676e-06,-1.3645829449460134e-06,-6.287888841913919e-06,5.998267485485265e-08,2.1941781228745905e-06,-5.5043648065945805e-06,3.897169101041431e-07,1.016113747059899e-06,-3.5064487526048627e-07,-1.4416187162913374e-06,-3.681224140850148e-06,3.9933932473798506e-06,-6.861841228306131e-06,-0.00956654603313882,1.2284231607484486e-06,2.3612550856949577e-06,4.336218323824914e-06,9.424894186482735e-07,1.3140233452724193e-07,-8.458182166312667e-06,4.2584123420563724e-07,5.836169824791765e-07,-8.248484554551627e-06,-0.02602666306701623,-3.0317538116109155e-07,4.934999309896826e-08,3.553227937991288e-07,-1.4132400671940104e-06,-2.4580125043416334e-06,-3.0094228752524586e-06,-0.017386365881519948,-2.1788878554238706e-06,1.4170043773406647e-05,2.5416424948562153e-06,-5.872993640608569e-06,2.4930780871775058e-05,1.0873357655494226e-07,-2.478890589565262e-06,-2.977412443325839e-07,2.5692861503746715e-06,-6.251843706264922e-05,0.0448553977309631,-0.004565342556603975,4.881611254423308e-06,2.265422030349462e-08,2.339658645195993e-07,2.7404938910043243e-07,2.5319770358978315e-06,-2.3661937816722787e-06,-4.033819698608869e-06,-3.8871583177776145e-07,-2.0438065059983588e-06,4.182995557963198e-06,5.651244691311637e-06,1.4668785527843445e-07,4.4948434275570315e-07,6.596193138074186e-05,2.494357976033472e-05,3.3762777654839564e-06,6.233754960508191e-06,4.1426505099895726e-07,-4.0540015984207083e-07,0.0018173782088848588,1.4878475034949164e-05,3.003203039591045e-06,1.0282331971401778e-06,5.996431123925488e-06,8.10815235855562e-07,-3.6490223579181886e-06,-2.1074875436375567e-05,-2.6325689687930576e-07,3.2306255871325198e-06,-2.8474587204466663e-06,1.142176046367029e-06,2.699912897302195e-07,0.0012337154722522259,-5.840718057653537e-07,-2.3635720623871705e-06,-0.00015642663227873532,-5.894344692433011e-05,-0.0008044799623355674,0.0026114715326364894,3.107125671374514e-06,-1.3430348836124739e-05,9.365515047633994e-07,-4.800859139183393e-05,-6.251843706265008e-05,-0.009541715727719146,-0.013269949973146164,0.00478721013688338,0.016115415996029725,-0.00015642663227873922,-0.000804896366109335,-5.894344692432946e-05,6.231116179634944e-05,0.002929513288530753,-0.008862324655269212,-0.0012888484433600184,-0.00321127008459917,0.015226421658831693,4.517966333181585e-05,-0.00020587939011978452,-0.001110438341528212,7.161057861786776e-05,-0.00014174447416295637,4.7407420505445814e-05,0.020105626685507066,0.012087773164460426,-0.00028114266978987543,-0.06847678606868275,0.002848771768825623,-0.0019116747993976717,-0.0018419340851971513,-3.314292928236872e-05,0.03693239500130923,0.03575894813245221,-0.06841724207883775,0.08142097885379747,-0.4780700844683391,-0.012790034075543869,-0.03628787560758916,-0.055097990830189916,0.1646127583658455,0.07271430247446936,-0.009076409447891757,0.12322607738833072,0.03750766011503151,-0.0158913548931512,-0.005361545243891756,-0.015818750247627456,0.1360857312728837,-0.051604767339046745,0.38049185822598264,-0.3165114555761883,0.5215666001702575,-0.04497585205125836,-0.3884852996347198,-0.0005172482686797951,-4.682092191417479e-07,-1.0662206798660378e-06,-3.7275486298445736e-06,-7.040849070341995e-07,-3.586357614842744e-08,-0.05447235612830305,-6.47180780807566e-07
PC_18,7.234111086727961e-05,0.021505954643636596,-0.005901116477331547,-1.535647674972239e-08,-4.818149040679287e-07,-6.956316780173943e-07,-3.6179876650582754e-06,-2.9892653172214345e-08,1.663383727562584e-07,2.4280532053069792e-06,9.52027480183304e-08,9.152409161106156e-07,-7.149800121397654e-08,-1.4466586761852085e-08,-3.1893303855390354e-06,1.0077375144357248e-06,5.414939327152979e-06,-0.0020561177905941523,3.990606940451613e-07,2.417485056016404e-06,5.709367023043477e-07,2.6382524289519926e-07,3.269207843326072e-08,-1.21459507759214e-05,1.2515718020300604e-07,2.0682990631293308e-07,7.032270540135999e-06,0.012998248557015243,-1.1174742770014845e-08,-2.478125007976395e-08,-2.072662014154965e-06,-6.20714019405888e-07,-4.3231224852377514e-06,4.791839397262029e-06,0.004176998829354326,5.6744854067921675e-06,5.951215464951448e-06,1.4166340954990267e-07,-1.6226794399254294e-06,4.498670615203637e-06,-5.8164372420205915e-08,-2.4021724624858343e-06,5.647094517910746e-06,2.0789613479777565e-05,0.00013779412146961714,-0.022680613626697856,-0.004233335724416174,2.9438019734322383e-07,-1.6046914338828326e-07,8.53034609070013e-08,2.8614423515370784e-08,4.066697577947322e-07,4.815914608280837e-06,5.681027424415883e-06,-1.8157319439432607e-07,-3.1506033186956935e-06,9.319631647671081e-07,1.16877370891128e-06,1.5072474586831674e-07,2.2164820107196007e-07,9.745804330026e-06,1.810604997895017e-05,5.77485939029419e-07,7.423570889293805e-06,1.266526875663354e-05,-4.619444864218635e-08,-0.006283498129838626,3.9785525215129335e-05,2.2494371107375795e-07,1.5055594170343973e-06,-1.7614003995012665e-06,-2.129028725991549e-06,6.2166933694259035e-06,5.1683554376486814e-05,6.459487769847028e-08,3.913834693726287e-07,4.955511038266623e-06,-2.0000169308000723e-07,5.46109852806457e-07,-0.0010809426297710687,-2.4090592644449853e-07,-2.98082517915198e-06,-0.00018270785850330577,-3.139583422592877e-05,0.0028601889184022393,0.0004892608234905041,4.3419136515098947e-07,1.3005373840737435e-05,1.1147906144974844e-06,3.876865752728393e-07,0.00013779412146961415,-0.002128281436914981,-0.016475039601008986,-0.0060661197451092885,0.014271026913395435,-0.00018270785850330685,0.0028600179059261807,-3.139583422593092e-05,2.067762339397398e-08,0.007614684857348023,0.004499204537486282,-0.005547285161062987,0.0008456042250153585,-0.01249137839107883,-3.295316739945624e-05,-0.00021928252243688315,-0.0003069565439017628,3.125210922528296e-05,-0.0004590761162346379,1.1732073112701984e-06,-0.006978896417823872,-0.0025146286810677813,-3.401651815149202e-05,0.04572846249229795,-0.008370840629112029,-5.946096575556942e-05,-0.0005840062720714742,4.939662805401846e-07,-0.013507409151519436,0.010819224493659185,-0.023308109715242234,0.024842003015909962,0.770954331820318,-0.004711019841491578,-0.013939128766164946,-0.01881129604887461,0.036504118572271975,0.019250709622906297,-0.003571453465353978,0.02197706798721942,0.010012104461598283,-0.0028765446944669297,-0.0014430142151317356,-0.0045886492358678645,0.02287451408623182,-0.017778295957922994,0.045462384096722326,-0.478301859393144,0.050252237638219927,-0.015708420343550883,-0.40234447359926845,0.00012524700135699187,3.6713877728366207e-07,-2.392468304303483e-07,1.605585681520736e-06,-2.1615992088100138e-07,4.563352995364945e-08,-0.025689733829722172,-3.506641449186915e-06
PC_19,-9.668824411091288e-06,-0.0203624874476872,0.00908155396275882,-5.463845791413779e-08,-1.436237099185396e-07,5.7184386445703617e-08,-6.7606849644520975e-06,-9.350523540521682e-08,1.0912901637037675e-07,3.5981865821885575e-06,-7.528566650649715e-08,-2.3984872361028364e-06,-4.369954170399537e-08,-1.1315703573912261e-06,3.0687433660008673e-06,-7.809338350567296e-07,-1.3838334955648679e-05,0.007037748540949565,-3.0525233701839127e-07,-2.1917017024048607e-06,9.166258647941294e-09,5.490889705027022e-08,5.891176307198931e-08,1.306231759305547e-05,-8.954300127414494e-08,-3.710433724643525e-07,-6.020121451880481e-06,-0.026311302050229926,-2.6660687258567295e-07,-1.0120366825822069e-07,-5.992388240748381e-06,-1.778407216629363e-07,-4.7237780710380345e-06,-5.416644699946555e-07,-0.016206326538608786,-1.5553897972374713e-06,-1.0199820516848166e-06,-1.3938843210735408e-07,1.4109453618639067e-06,-1.771670484477882e-06,3.497622215634282e-08,4.273864125269459e-06,-1.382199476783339e-06,-5.6056536343171854e-05,-0.00012054765177626527,0.04257794354902411,-0.004900063718483083,-4.872156651780859e-07,-2.45697585752826e-07,-6.689195907461714e-08,-1.0581509891582243e-07,-9.840370376337592e-07,-6.177037829302535e-07,-2.782457353016273e-06,-7.762738933917491e-08,-4.4389864958888535e-06,-1.2190371066561094e-06,-7.307775607042306e-07,-1.2334596654167358e-07,-2.3931217781507185e-07,-2.5931948163014987e-06,-2.038675413777426e-05,-2.2887684496821616e-07,-3.6170613195987477e-06,5.929145620694407e-06,-2.561592324885522e-07,0.012126139264767013,-1.026303142280138e-05,4.0369495200449134e-08,-2.5397554345484434e-06,-5.501853100944698e-06,3.800623538758269e-06,-3.3303862246738896e-06,-0.00011034422674539163,-2.9674862215269086e-07,-1.549688495221096e-08,-5.237908375388939e-07,2.003510679280792e-06,-7.061221231488472e-07,-0.0023737860783571477,-7.181139487183019e-08,-4.815049834300479e-06,-0.00018014952963787034,-8.048004166179529e-05,0.0003773071677784824,-0.00023284906207686907,-1.0511156488219167e-07,-9.946018703224153e-06,-1.3620628927658395e-06,-0.00016349403348359538,-0.00012054765177624076,0.00711308719760431,0.0033769533648921306,0.014190178327067676,-0.02539817194964964,-0.00018014952963787555,0.0003772991281224599,-8.04800416617981e-05,5.280444646293682e-06,0.0007165507103927471,0.00013858353417402908,0.018910658296394326,0.003655688898485875,0.019234635212081012,-3.679715118637759e-05,-0.0003414705727509818,0.0009270912663690567,6.83323744131597e-05,-2.6375817552060695e-05,4.905986945494011e-05,0.013646616721028185,-0.0064082430859606215,-0.00020782135780203658,-0.08069261507728122,0.005517488485144601,4.785124776546766e-05,0.0003005267093323075,5.988893286525327e-06,0.025210801554603767,-0.001374123964825229,0.0032137592485118258,-0.006082290761455143,-0.05861611171672242,0.0017475685978779456,0.002305932111513108,0.0003865634049450657,-0.0024123557556217194,-0.002093928965657953,0.0010549531717004407,0.007262761338012673,-0.00017246425222706713,-0.0017389736993791017,0.00013397281419770535,6.934080630351114e-05,0.006841895134526108,0.0015829717418828684,0.011402154560369374,-0.6985198901050268,0.020724239498498588,0.002801581645253636,0.7037649462576241,-3.817839458322009e-05,-6.749648929178763e-07,5.336852073534286e-07,-2.9008469679573662e-06,-3.9829401940380694e-08,1.0703404993656038e-08,0.007758600135342599,1.484015894952846e-07
PC_20,-1.437294586219837e-05,0.009402232331716899,-0.010212782274303686,-2.4788490742022086e-07,7.094540070647949e-06,7.34209562827659e-06,1.0262594488231894e-05,-2.2074547703209574e-07,-1.0524893992620854e-06,-9.39799899343186e-07,2.0242864454123044e-08,1.002855285107962e-05,2.2371848229160718e-07,7.085295333077862e-06,3.0734554066233575e-06,-1.3421804522933956e-06,6.9371308060312e-06,0.000732090801829885,-8.799092343775294e-07,-2.8638825544241575e-06,-1.8886582831487142e-06,-9.030301454382439e-07,-1.5521986612698768e-07,-5.860847192340479e-06,-2.1259973577436586e-07,1.8701460215292398e-06,8.335108505896915e-07,0.016134705829699142,2.302276229056155e-06,-2.3267602319854142e-07,1.048404782211243e-06,4.93885056108978e-06,4.1070167993984e-06,-9.461858370624684e-07,0.0008919309550182294,-9.915371662334686e-07,-5.41031860436204e-06,2.6283568746821116e-06,1.4398367366672015e-05,3.104840342702843e-06,-2.4206618736671956e-07,-1.8581558268926574e-06,-2.305553249334121e-06,-4.9299440361676855e-06,5.5595857109153046e-05,-0.019623221902548067,-0.003921606276691566,2.6629563914703147e-06,-5.337685144641332e-07,-5.507433989763153e-07,-4.621116602516659e-07,1.5035377175817537e-08,-2.608006480392421e-06,5.017550403903833e-06,1.140363576664522e-06,-1.9644078240957255e-06,4.9132863148266094e-06,-1.8492814976720168e-06,7.850066940879924e-08,-2.872002806813276e-07,2.354258587390027e-05,4.645177503892657e-05,-8.345416532133426e-07,-7.845440330289406e-06,-6.3440590956829156e-06,3.842234694930721e-06,0.00980773621133443,6.076048567728136e-05,-1.141519126179538e-06,9.36450603069845e-06,5.319329630286982e-06,-1.4645962802329378e-06,6.684010369678497e-06,0.00013140529892448002,6.074766976644098e-06,-8.678497324449879e-07,-1.395810633748342e-06,-7.830856181621597e-07,-8.404202519806747e-08,-0.000701519334683532,3.547244590974087e-06,2.1319017053300832e-06,-1.3403423716157152e-05,0.0001675598127032214,-0.002438234779381987,-0.0007423892077222521,-8.73668452535081e-07,2.0720363234081815e-05,-2.8078013177836817e-07,0.00011836135107249702,5.559585710915131e-05,0.0005474412528456794,-0.011560056048606016,-0.016216875568784053,0.029565369188040314,-1.3403423716156285e-05,-0.00243781548519318,0.00016755981270322358,7.273520653753337e-05,-0.00018055079093652615,-0.01569568035178903,0.005867005090850461,-0.0020958623039445956,-0.02615298633626939,0.0003244802532998705,-0.00017320074575224997,0.0015702626701335452,3.571319197653508e-06,0.00018492218444950137,1.9180872999624877e-05,0.0006380038839236776,0.003610385880714776,0.00015637199507767,0.04476086429569147,-0.006479977704273901,-0.0011460343142779758,-0.0015814004005488755,0.00010824998808325686,-0.003918156277565656,-0.059014845486026764,0.46795484104773577,-0.09765129189811562,-0.2593238554200694,0.032327382661441764,0.13240458400581073,0.2653816199518581,-0.13214554356520375,-0.09100113254341538,0.0239185013135019,-0.12056925277419026,-0.05735157350858852,0.038647167802545374,0.013561711822356118,0.04066379536013908,-0.12497624472537083,0.2532647687142425,-0.1703350219912363,-0.2974682122125572,-0.18571929620540864,0.19142590514912547,-0.3074470543763875,0.0006236914039475204,8.511439652962767e-07,2.623483021337366e-06,3.685359166938105e-06,2.2925756623159817e-06,1.1181515232679277e-08,0.44279379078484643,2.610094568851917e-05
